digraph Tree {
node [shape=box] ;
0 [label="X[40]\nentropy = 0.393\nsamples = 8436\nvalue = [7784, 652]"] ;
1 [label="entropy = 0.0\nsamples = 5564\nvalue = [5564, 0]"] ;
0 -> 1 [labeldistance=2.5, labelangle=45, headlabel="False"] ;
2 [label="X[18]\nentropy = 0.773\nsamples = 2872\nvalue = [2220, 652]"] ;
0 -> 2 [labeldistance=2.5, labelangle=-45, headlabel="True"] ;
3 [label="X[35]\nentropy = 0.998\nsamples = 1042\nvalue = [491, 551]"] ;
2 -> 3 ;
4 [label="X[36]\nentropy = 0.248\nsamples = 510\nvalue = [21, 489]"] ;
3 -> 4 ;
5 [label="X[44]\nentropy = 0.124\nsamples = 474\nvalue = [8, 466]"] ;
4 -> 5 ;
6 [label="entropy = 0.023\nsamples = 451\nvalue = [1, 450]"] ;
5 -> 6 ;
7 [label="entropy = 0.887\nsamples = 23\nvalue = [7, 16]"] ;
5 -> 7 ;
8 [label="X[62]\nentropy = 0.944\nsamples = 36\nvalue = [13, 23]"] ;
4 -> 8 ;
9 [label="entropy = 0.667\nsamples = 23\nvalue = [4, 19]"] ;
8 -> 9 ;
10 [label="entropy = 0.89\nsamples = 13\nvalue = [9, 4]"] ;
8 -> 10 ;
11 [label="X[48]\nentropy = 0.519\nsamples = 532\nvalue = [470, 62]"] ;
3 -> 11 ;
12 [label="X[8]\nentropy = 0.845\nsamples = 187\nvalue = [136, 51]"] ;
11 -> 12 ;
13 [label="entropy = 0.414\nsamples = 24\nvalue = [2, 22]"] ;
12 -> 13 ;
14 [label="entropy = 0.675\nsamples = 163\nvalue = [134, 29]"] ;
12 -> 14 ;
15 [label="X[42]\nentropy = 0.204\nsamples = 345\nvalue = [334, 11]"] ;
11 -> 15 ;
16 [label="entropy = 0.0\nsamples = 10\nvalue = [0, 10]"] ;
15 -> 16 ;
17 [label="entropy = 0.029\nsamples = 335\nvalue = [334, 1]"] ;
15 -> 17 ;
18 [label="X[23]\nentropy = 0.308\nsamples = 1830\nvalue = [1729, 101]"] ;
2 -> 18 ;
19 [label="X[72]\nentropy = 0.851\nsamples = 260\nvalue = [188, 72]"] ;
18 -> 19 ;
20 [label="entropy = 0.0\nsamples = 27\nvalue = [0, 27]"] ;
19 -> 20 ;
21 [label="X[41]\nentropy = 0.708\nsamples = 233\nvalue = [188, 45]"] ;
19 -> 21 ;
22 [label="entropy = 0.918\nsamples = 132\nvalue = [88, 44]"] ;
21 -> 22 ;
23 [label="entropy = 0.08\nsamples = 101\nvalue = [100, 1]"] ;
21 -> 23 ;
24 [label="X[38]\nentropy = 0.133\nsamples = 1570\nvalue = [1541, 29]"] ;
18 -> 24 ;
25 [label="X[20]\nentropy = 0.799\nsamples = 33\nvalue = [8, 25]"] ;
24 -> 25 ;
26 [label="entropy = 0.235\nsamples = 26\nvalue = [1, 25]"] ;
25 -> 26 ;
27 [label="entropy = 0.0\nsamples = 7\nvalue = [7, 0]"] ;
25 -> 27 ;
28 [label="X[36]\nentropy = 0.026\nsamples = 1537\nvalue = [1533, 4]"] ;
24 -> 28 ;
29 [label="entropy = 0.42\nsamples = 47\nvalue = [43, 4]"] ;
28 -> 29 ;
30 [label="entropy = 0.0\nsamples = 1490\nvalue = [1490, 0]"] ;
28 -> 30 ;
}